digraph Tree {
node [shape=box, fontname="helvetica"] ;
edge [fontname="helvetica"] ;
0 [label="幻覺 <= 0.5\ngini = 0.5\nsamples = 168\nvalue = [83, 85]\nclass = 腸胃炎"] ;
1 [label="weakness_of_one_body_side(單邊身體虛弱) <= 0.5\ngini = 0.045\nsamples = 87\nvalue = [2, 85]\nclass = 腸胃炎"] ;
0 -> 1 [labeldistance=2.5, labelangle=45, headlabel="True"] ;
2 [label="gini = 0.0\nsamples = 85\nvalue = [0, 85]\nclass = 腸胃炎"] ;
1 -> 2 ;
3 [label="gini = 0.0\nsamples = 2\nvalue = [2, 0]\nclass = 癱瘓（腦出血）"] ;
1 -> 3 ;
4 [label="gini = 0.0\nsamples = 81\nvalue = [81, 0]\nclass = 癱瘓（腦出血）"] ;
0 -> 4 [labeldistance=2.5, labelangle=-45, headlabel="False"] ;
}