digraph Tree {
node [shape=box, fontname="helvetica"] ;
edge [fontname="helvetica"] ;
0 [label="排尿 <= 0.5\ngini = 0.5\nsamples = 168\nvalue = [83, 85]\nclass = 藥物不良反應"] ;
1 [label="灼熱感排尿 <= 0.5\ngini = 0.107\nsamples = 88\nvalue = [83, 5]\nclass = 真菌感染"] ;
0 -> 1 [labeldistance=2.5, labelangle=45, headlabel="True"] ;
2 [label="gini = 0.0\nsamples = 83\nvalue = [83, 0]\nclass = 真菌感染"] ;
1 -> 2 ;
3 [label="gini = 0.0\nsamples = 5\nvalue = [0, 5]\nclass = 藥物不良反應"] ;
1 -> 3 ;
4 [label="gini = 0.0\nsamples = 80\nvalue = [0, 80]\nclass = 藥物不良反應"] ;
0 -> 4 [labeldistance=2.5, labelangle=-45, headlabel="False"] ;
}